FANN_FLO_2.1
num_layers=3
learning_rate=0.700000
connection_rate=1.000000
network_type=0
learning_momentum=0.000000
training_algorithm=2
train_error_function=1
train_stop_function=0
cascade_output_change_fraction=0.010000
quickprop_decay=-0.000100
quickprop_mu=1.750000
rprop_increase_factor=1.200000
rprop_decrease_factor=0.500000
rprop_delta_min=0.000000
rprop_delta_max=50.000000
rprop_delta_zero=0.100000
cascade_output_stagnation_epochs=12
cascade_candidate_change_fraction=0.010000
cascade_candidate_stagnation_epochs=12
cascade_max_out_epochs=150
cascade_min_out_epochs=50
cascade_max_cand_epochs=150
cascade_min_cand_epochs=50
cascade_num_candidate_groups=2
bit_fail_limit=3.49999999999999977796e-01
cascade_candidate_limit=1.00000000000000000000e+03
cascade_weight_multiplier=4.00000000000000022204e-01
cascade_activation_functions_count=10
cascade_activation_functions=3 5 7 8 10 11 14 15 16 17 
cascade_activation_steepnesses_count=4
cascade_activation_steepnesses=2.50000000000000000000e-01 5.00000000000000000000e-01 7.50000000000000000000e-01 1.00000000000000000000e+00 
layer_sizes=5 61 2 
scale_included=0
neurons (num_inputs, activation_function, activation_steepness)=(0, 0, 0.00000000000000000000e+00) (0, 0, 0.00000000000000000000e+00) (0, 0, 0.00000000000000000000e+00) (0, 0, 0.00000000000000000000e+00) (0, 0, 0.00000000000000000000e+00) (5, 4, 5.00000000000000000000e-01) (5, 4, 5.00000000000000000000e-01) (5, 4, 5.00000000000000000000e-01) (5, 4, 5.00000000000000000000e-01) (5, 4, 5.00000000000000000000e-01) (5, 4, 5.00000000000000000000e-01) (5, 4, 5.00000000000000000000e-01) (5, 4, 5.00000000000000000000e-01) (5, 4, 5.00000000000000000000e-01) (5, 4, 5.00000000000000000000e-01) (5, 4, 5.00000000000000000000e-01) (5, 4, 5.00000000000000000000e-01) (5, 4, 5.00000000000000000000e-01) (5, 4, 5.00000000000000000000e-01) (5, 4, 5.00000000000000000000e-01) (5, 4, 5.00000000000000000000e-01) (5, 4, 5.00000000000000000000e-01) (5, 4, 5.00000000000000000000e-01) (5, 4, 5.00000000000000000000e-01) (5, 4, 5.00000000000000000000e-01) (5, 4, 5.00000000000000000000e-01) (5, 4, 5.00000000000000000000e-01) (5, 4, 5.00000000000000000000e-01) (5, 4, 5.00000000000000000000e-01) (5, 4, 5.00000000000000000000e-01) (5, 4, 5.00000000000000000000e-01) (5, 4, 5.00000000000000000000e-01) (5, 4, 5.00000000000000000000e-01) (5, 4, 5.00000000000000000000e-01) (5, 4, 5.00000000000000000000e-01) (5, 4, 5.00000000000000000000e-01) (5, 4, 5.00000000000000000000e-01) (5, 4, 5.00000000000000000000e-01) (5, 4, 5.00000000000000000000e-01) (5, 4, 5.00000000000000000000e-01) (5, 4, 5.00000000000000000000e-01) (5, 4, 5.00000000000000000000e-01) (5, 4, 5.00000000000000000000e-01) (5, 4, 5.00000000000000000000e-01) (5, 4, 5.00000000000000000000e-01) (5, 4, 5.00000000000000000000e-01) (5, 4, 5.00000000000000000000e-01) (5, 4, 5.00000000000000000000e-01) (5, 4, 5.00000000000000000000e-01) (5, 4, 5.00000000000000000000e-01) (5, 4, 5.00000000000000000000e-01) (5, 4, 5.00000000000000000000e-01) (5, 4, 5.00000000000000000000e-01) (5, 4, 5.00000000000000000000e-01) (5, 4, 5.00000000000000000000e-01) (5, 4, 5.00000000000000000000e-01) (5, 4, 5.00000000000000000000e-01) (5, 4, 5.00000000000000000000e-01) (5, 4, 5.00000000000000000000e-01) (5, 4, 5.00000000000000000000e-01) (5, 4, 5.00000000000000000000e-01) (5, 4, 5.00000000000000000000e-01) (5, 4, 5.00000000000000000000e-01) (5, 4, 5.00000000000000000000e-01) (5, 4, 5.00000000000000000000e-01) (0, 0, 0.00000000000000000000e+00) (61, 0, 5.00000000000000000000e-01) (0, 0, 0.00000000000000000000e+00) 
connections (connected_to_neuron, weight)=(0, 1.62065440278474276470e-01) (1, -3.38595102295521310776e-01) (2, 1.53402775997468374669e+01) (3, 1.54614215741106413304e+01) (4, 2.79965305190507329769e-01) (0, -3.42404430140104826252e-02) (1, -8.74608419940118064773e-01) (2, 1.53191722469576738774e+01) (3, 1.54339419255205534398e+01) (4, 8.77363721500787341334e-02) (0, 2.19178692858640139507e-01) (1, -3.60844823286179006150e-01) (2, 1.53466606388040922582e+01) (3, 1.53136248352178476750e+01) (4, 5.06860077569098010919e-01) (0, 4.01228880889094585704e-01) (1, -3.66741957828644216111e-01) (2, 1.53211666220971487462e+01) (3, 1.53321385407992742955e+01) (4, 1.55834135047072747104e-01) (0, 3.92109489447749315350e-01) (1, -3.61452656552437245896e-01) (2, 1.52989538187333486974e+01) (3, 1.53767107078977964818e+01) (4, 1.71367485455149987095e-01) (0, 9.48562363754663073756e-02) (1, -7.08712689683083874037e-01) (2, 1.54736261913725279271e+01) (3, 1.53791248748251341283e+01) (4, -1.94197153168099406750e-01) (0, 2.02715562146130984233e-01) (1, -3.22235758170727304428e-01) (2, 1.52924916470595739781e+01) (3, 1.53927958557554624974e+01) (4, 4.91660937854856983087e-01) (0, 9.88947937857064807154e-02) (1, -7.73317106172685009291e-01) (2, 1.54110178152271650731e+01) (3, 1.54674233297058485448e+01) (4, 4.44801862012299820126e-02) (0, 2.47456173073205346058e-02) (1, -8.44824086979274024856e-01) (2, 1.54462204376408003270e+01) (3, 1.54207625487991712987e+01) (4, 5.26561255227479263485e-02) (0, 2.42005744438592379497e-01) (1, -3.27577206060532144516e-01) (2, 1.54484992275186918675e+01) (3, 1.54129750529476545751e+01) (4, 5.57036467084497943780e-01) (0, 1.46749336517945222491e-01) (1, -8.12484115466718059828e-01) (2, 1.53215490678497694432e+01) (3, 1.52950594449588201940e+01) (4, -1.14616868513005260022e-01) (0, 2.34886126082364560252e-01) (1, -2.73956800565365365951e-01) (2, 1.54699543813415907323e+01) (3, 1.53583150083371542394e+01) (4, 4.57643203625292482872e-01) (0, 6.44475037824067398251e-02) (1, -7.70395524904374462416e-01) (2, 1.54613727132030867040e+01) (3, 1.54062954435297392308e+01) (4, -2.56443159150259947232e-01) (0, 2.41958887737218325542e-01) (1, -3.58682240113857686570e-01) (2, 1.54635236809202574193e+01) (3, 1.53027793938466452062e+01) (4, 4.61216226408095064659e-01) (0, 3.39953119527253433407e-02) (1, -8.04347492859010082533e-01) (2, 1.54103574404665373265e+01) (3, 1.53295720243998907506e+01) (4, 2.70422793522775897074e-04) (0, 1.88558598469916766094e-01) (1, -2.91848311886433176010e-01) (2, 1.54352782765575788915e+01) (3, 1.52868605131455801427e+01) (4, 4.73601885327906146905e-01) (0, 8.16863665949258410670e-02) (1, -8.98262664780263175857e-01) (2, 1.54550830671736143529e+01) (3, 1.54525917420336149632e+01) (4, -1.93478350866880879910e-02) (0, 1.29156474269524507159e-01) (1, -8.43948252603654136550e-01) (2, 1.54692804167219541966e+01) (3, 1.54484671453186415135e+01) (4, 9.82221255670938098170e-02) (0, 2.15848864477101748394e-01) (1, -3.50957828328255228012e-01) (2, 1.53584116870709799230e+01) (3, 1.53270242648371599614e+01) (4, 4.07812737116427070916e-01) (0, 9.06588176857385241725e-02) (1, -7.62442953989152294447e-01) (2, 1.53750957722016714513e+01) (3, 1.54035387883135221898e+01) (4, 1.24191809691086701983e-01) (0, 3.25237223368112005062e-01) (1, -4.26338384613636434128e-01) (2, 1.53504294032403372228e+01) (3, 1.53853973621674917638e+01) (4, 1.82108740028946475276e-01) (0, 7.66912589441690051295e-02) (1, -7.57470153376702648451e-01) (2, 1.52898257399150274694e+01) (3, 1.53613258177586935460e+01) (4, -1.49453116076367381604e-01) (0, 2.52352864902440465755e-01) (1, -4.20860285625103414109e-01) (2, 1.54455681691118620336e+01) (3, 1.53572386229583166539e+01) (4, 5.84206588754267119867e-01) (0, -4.77882434953299101155e-02) (1, -8.45477417215947379958e-01) (2, 1.53342236230322264134e+01) (3, 1.54708484808155439794e+01) (4, -1.31548975933638203489e-02) (0, 1.57990784805242007183e-01) (1, -3.76728742137793004563e-01) (2, 1.53984723264523886144e+01) (3, 1.53662051731892965734e+01) (4, 2.65704469244901098079e-01) (0, 3.81352862722552476971e-01) (1, -4.07008494004848897507e-01) (2, 1.53342929991134546697e+01) (3, 1.53201087663122557103e+01) (4, 2.95961093536490804645e-01) (0, -1.55237575400915695650e-02) (1, -8.86080123588685264480e-01) (2, 1.54486323097893141210e+01) (3, 1.53842619383880041539e+01) (4, 8.31726084124002063014e-02) (0, 1.93266326051179354595e-01) (1, -4.02919280097130239060e-01) (2, 1.53562875414439581334e+01) (3, 1.53328947561034105718e+01) (4, 2.73815484207097448177e-01) (0, -4.47529529820352676983e-03) (1, -7.46178500458840709975e-01) (2, 1.54159866670318983495e+01) (3, 1.52904491597958944737e+01) (4, -2.67783345150130247525e-01) (0, 8.95648936401757800319e-02) (1, -8.89211595162991752517e-01) (2, 1.53800231913277052342e+01) (3, 1.54731448093601606786e+01) (4, -3.45077474940863188069e-02) (0, 9.28597191940698230006e-02) (1, -9.00290519103650321853e-01) (2, 1.53513485664674185216e+01) (3, 1.53406883428045652806e+01) (4, 4.97700239192399307431e-02) (0, 4.29187020666278062908e-01) (1, -4.27527415320518910935e-01) (2, 1.54053465971895597875e+01) (3, 1.53271401586183451116e+01) (4, -8.15878930593802453863e-02) (0, 2.43277253072682803081e-01) (1, -3.52256077096108011215e-01) (2, 1.53529416570612333715e+01) (3, 1.53417122611948393285e+01) (4, 5.84481008538813018305e-01) (0, 1.61659301679555361675e-01) (1, -3.28447478577736429184e-01) (2, 1.53075269932099722325e+01) (3, 1.53677495369860075414e+01) (4, 3.19856205444756902523e-01) (0, 5.44400103578180805108e-01) (1, -3.00598229035976938217e-01) (2, 1.54047092149206541478e+01) (3, 1.53731232682415388524e+01) (4, 2.89281722537154561969e-01) (0, 1.25616152084961824054e-01) (1, -8.69184367463235130202e-01) (2, 1.54470797727056883275e+01) (3, 1.53549956256696127355e+01) (4, -1.21841912497130024778e-02) (0, 1.38563458121910981768e-01) (1, -8.84017169580106010329e-01) (2, 1.53181103827604196965e+01) (3, 1.53392683142968557775e+01) (4, 4.05265505086335464657e-02) (0, 9.38718507658395373561e-02) (1, -8.49113326624278297317e-01) (2, 1.53755841950127027928e+01) (3, 1.53485747227617643773e+01) (4, 6.18822092782410973499e-02) (0, 5.82255999510883470727e-01) (1, -2.71574089989307931869e-01) (2, 1.54722111920067213475e+01) (3, 1.53123102696784876287e+01) (4, 1.69568974903697350376e-01) (0, 4.31759989268458543865e-01) (1, -3.89456505641582906296e-01) (2, 1.54201310822912596166e+01) (3, 1.53029471138664625585e+01) (4, 2.77723830572242147419e-01) (0, 5.81219093223219185340e-01) (1, -2.53145049080494455307e-01) (2, 1.53561351994224928319e+01) (3, 1.53204906346448801457e+01) (4, 2.19409007958049212528e-01) (0, -1.21670996178236592161e-02) (1, -8.85765731439236869704e-01) (2, 1.53972342783757589757e+01) (3, 1.52842689627953909337e+01) (4, 5.30852715145501419247e-02) (0, 5.83285192912220140649e-01) (1, -2.41040060982349951813e-01) (2, 1.53996532062240980565e+01) (3, 1.52785082036801718175e+01) (4, 1.97659064463252431842e-01) (0, -3.38288133371916280301e-02) (1, -7.59492464468125683119e-01) (2, 1.53955553719946287572e+01) (3, 1.53911116818138502538e+01) (4, -2.89761213081257795743e-01) (0, 1.82982610028211062358e-01) (1, -3.62748483881596028855e-01) (2, 1.54639486024328611791e+01) (3, 1.53049964929171942174e+01) (4, 2.64970721166554845638e-01) (0, 1.75487147133771365093e-01) (1, -4.12812161013725698044e-01) (2, 1.54385456839748762548e+01) (3, 1.54454209307381056249e+01) (4, 2.05543891947690432476e-01) (0, 5.86854855190667434872e-02) (1, -8.20026457414273490798e-01) (2, 1.53154303046115778386e+01) (3, 1.54641769627281568944e+01) (4, 8.43195656906518542506e-02) (0, 7.72552827965173327662e-02) (1, -8.79862651333455314528e-01) (2, 1.54291389236399076879e+01) (3, 1.53238458657809637486e+01) (4, -1.17383112538900959837e-02) (0, 8.21562508453458489877e-03) (1, -8.96985121175889243972e-01) (2, 1.53098066920586965978e+01) (3, 1.54572251239963911473e+01) (4, -3.46215476621237333577e-02) (0, 5.64675682504778175819e-01) (1, -2.40476156339291174957e-01) (2, 1.54364710847088240087e+01) (3, 1.52947933847257040441e+01) (4, 2.50066299370402700397e-01) (0, 4.21096301085627844341e-01) (1, -3.85650082245710790207e-01) (2, 1.54663274089046858251e+01) (3, 1.54487050423571012914e+01) (4, 2.18777206174010668827e-01) (0, 5.77359686266335769833e-02) (1, -7.07233928248528820326e-01) (2, 1.53849746460267446935e+01) (3, 1.53456379423090361058e+01) (4, -1.40656468885319713147e-01) (0, 5.53576179036707416437e-01) (1, -2.59549046620968393295e-01) (2, 1.53326010132380865514e+01) (3, 1.52817429701038740575e+01) (4, 3.04058712354773885700e-01) (0, 1.42912004388466767901e-01) (1, -7.72874243662003856947e-01) (2, 1.54712056914516828954e+01) (3, 1.54214072177359007298e+01) (4, -1.27871853726284984143e-01) (0, -1.45411824215498555052e-02) (1, -9.02249671623353233230e-01) (2, 1.54684269676157377660e+01) (3, 1.53446217948743246495e+01) (4, 1.38830814756050996417e-01) (0, 1.59350441258374636577e-01) (1, -2.69368956551197580307e-01) (2, 1.54609397152611158788e+01) (3, 1.54456242123791120946e+01) (4, 3.40833374720040715999e-01) (0, 5.25665658479332109643e-01) (1, -2.82848099932316354721e-01) (2, 1.53182147504934214055e+01) (3, 1.53691056991168402135e+01) (4, 2.65287738672370321247e-01) (0, 7.94079343449029528834e-02) (1, -9.05030839249734153640e-01) (2, 1.54050634304233931005e+01) (3, 1.53137388663538835942e+01) (4, 2.44624728928956383656e-02) (0, 2.52650835972253240413e-01) (1, -4.33177235290649831345e-01) (2, 1.53274984793909929692e+01) (3, 1.54350545356222532689e+01) (4, 4.01040867158980018914e-01) (0, 1.73526765268269961284e-01) (1, -2.85905922517422250717e-01) (2, 1.54221319208094023168e+01) (3, 1.52945351476022146642e+01) (4, 2.50910216432038701839e-01) (5, 2.88251519126518140901e-01) (6, 4.84886628980264688948e-01) (7, 2.61628381831272016633e-01) (8, 2.82669901771171461213e-01) (9, 2.81899809760673414338e-01) (10, 2.49815493745429911820e-01) (11, 2.91823044342620740998e-01) (12, 5.25351104731187845687e-01) (13, 5.10346678490266825179e-01) (14, 2.63438709003551374543e-01) (15, 5.15987170333490396956e-01) (16, 3.39524924678428541291e-01) (17, 2.19810791236980357377e-01) (18, 2.86593317908866773713e-01) (19, 5.08222085828409220198e-01) (20, 3.50879356188400159944e-01) (21, 4.88957566613779093245e-01) (22, 5.10411483640298868636e-01) (23, 2.81934231443031202424e-01) (24, 5.28687869603261972884e-01) (25, 5.84230256671533609847e-01) (26, 1.84387758297546305863e-01) (27, 2.61130787355525861848e-01) (28, 4.37720162267313028792e-01) (29, 3.45433726830108533967e-01) (30, 2.74908155126197706331e-01) (31, 4.61049621398077036361e-01) (32, 2.98748001379592786897e-01) (33, 2.23031505865676799027e-01) (34, 4.81576198185310389022e-01) (35, 4.73060944522247339705e-01) (36, 6.28938165897951151351e-01) (37, 2.63317853135688673127e-01) (38, 3.05144384426696668733e-01) (39, 2.82063141388519178498e-01) (40, 4.62872808272466684798e-01) (41, 4.72615012372360254744e-01) (42, 4.91541327381954162856e-01) (43, 2.85078942699058424104e-01) (44, 2.79816716832740675081e-01) (45, 3.25435101909263502229e-01) (46, 4.45121203953847910384e-01) (47, 2.63396732432468305696e-01) (48, 1.89300976616962352006e-01) (49, 3.02169576210601698030e-01) (50, 3.42073872608764539827e-01) (51, 4.57835478181467081527e-01) (52, 4.35182241196260477523e-01) (53, 4.96540462071523525101e-01) (54, 3.10224771422965894807e-01) (55, 2.60725133044345747102e-01) (56, 1.77625738007648387162e-01) (57, 3.38667631072624097932e-01) (58, 4.39511065775976206282e-01) (59, 4.59401001627073313216e-01) (60, 3.28156456274612318147e-01) (61, 2.84874290151222120393e-01) (62, 4.90905684823617904922e-01) (63, 2.70959548575504194368e-01) (64, 3.51960897369010816682e-01) (65, -1.13776127754319139607e-01) 
