FANN_FLO_2.1
num_layers=3
learning_rate=0.700000
connection_rate=1.000000
network_type=0
learning_momentum=0.000000
training_algorithm=2
train_error_function=1
train_stop_function=0
cascade_output_change_fraction=0.010000
quickprop_decay=-0.000100
quickprop_mu=1.750000
rprop_increase_factor=1.200000
rprop_decrease_factor=0.500000
rprop_delta_min=0.000000
rprop_delta_max=50.000000
rprop_delta_zero=0.100000
cascade_output_stagnation_epochs=12
cascade_candidate_change_fraction=0.010000
cascade_candidate_stagnation_epochs=12
cascade_max_out_epochs=150
cascade_min_out_epochs=50
cascade_max_cand_epochs=150
cascade_min_cand_epochs=50
cascade_num_candidate_groups=2
bit_fail_limit=3.49999999999999977796e-01
cascade_candidate_limit=1.00000000000000000000e+03
cascade_weight_multiplier=4.00000000000000022204e-01
cascade_activation_functions_count=10
cascade_activation_functions=3 5 7 8 10 11 14 15 16 17 
cascade_activation_steepnesses_count=4
cascade_activation_steepnesses=2.50000000000000000000e-01 5.00000000000000000000e-01 7.50000000000000000000e-01 1.00000000000000000000e+00 
layer_sizes=5 61 2 
scale_included=0
neurons (num_inputs, activation_function, activation_steepness)=(0, 0, 0.00000000000000000000e+00) (0, 0, 0.00000000000000000000e+00) (0, 0, 0.00000000000000000000e+00) (0, 0, 0.00000000000000000000e+00) (0, 0, 0.00000000000000000000e+00) (5, 4, 5.00000000000000000000e-01) (5, 4, 5.00000000000000000000e-01) (5, 4, 5.00000000000000000000e-01) (5, 4, 5.00000000000000000000e-01) (5, 4, 5.00000000000000000000e-01) (5, 4, 5.00000000000000000000e-01) (5, 4, 5.00000000000000000000e-01) (5, 4, 5.00000000000000000000e-01) (5, 4, 5.00000000000000000000e-01) (5, 4, 5.00000000000000000000e-01) (5, 4, 5.00000000000000000000e-01) (5, 4, 5.00000000000000000000e-01) (5, 4, 5.00000000000000000000e-01) (5, 4, 5.00000000000000000000e-01) (5, 4, 5.00000000000000000000e-01) (5, 4, 5.00000000000000000000e-01) (5, 4, 5.00000000000000000000e-01) (5, 4, 5.00000000000000000000e-01) (5, 4, 5.00000000000000000000e-01) (5, 4, 5.00000000000000000000e-01) (5, 4, 5.00000000000000000000e-01) (5, 4, 5.00000000000000000000e-01) (5, 4, 5.00000000000000000000e-01) (5, 4, 5.00000000000000000000e-01) (5, 4, 5.00000000000000000000e-01) (5, 4, 5.00000000000000000000e-01) (5, 4, 5.00000000000000000000e-01) (5, 4, 5.00000000000000000000e-01) (5, 4, 5.00000000000000000000e-01) (5, 4, 5.00000000000000000000e-01) (5, 4, 5.00000000000000000000e-01) (5, 4, 5.00000000000000000000e-01) (5, 4, 5.00000000000000000000e-01) (5, 4, 5.00000000000000000000e-01) (5, 4, 5.00000000000000000000e-01) (5, 4, 5.00000000000000000000e-01) (5, 4, 5.00000000000000000000e-01) (5, 4, 5.00000000000000000000e-01) (5, 4, 5.00000000000000000000e-01) (5, 4, 5.00000000000000000000e-01) (5, 4, 5.00000000000000000000e-01) (5, 4, 5.00000000000000000000e-01) (5, 4, 5.00000000000000000000e-01) (5, 4, 5.00000000000000000000e-01) (5, 4, 5.00000000000000000000e-01) (5, 4, 5.00000000000000000000e-01) (5, 4, 5.00000000000000000000e-01) (5, 4, 5.00000000000000000000e-01) (5, 4, 5.00000000000000000000e-01) (5, 4, 5.00000000000000000000e-01) (5, 4, 5.00000000000000000000e-01) (5, 4, 5.00000000000000000000e-01) (5, 4, 5.00000000000000000000e-01) (5, 4, 5.00000000000000000000e-01) (5, 4, 5.00000000000000000000e-01) (5, 4, 5.00000000000000000000e-01) (5, 4, 5.00000000000000000000e-01) (5, 4, 5.00000000000000000000e-01) (5, 4, 5.00000000000000000000e-01) (5, 4, 5.00000000000000000000e-01) (0, 0, 0.00000000000000000000e+00) (61, 0, 5.00000000000000000000e-01) (0, 0, 0.00000000000000000000e+00) 
connections (connected_to_neuron, weight)=(0, 1.16197751560581253455e-02) (1, -8.09251037880763579579e-01) (2, 3.24758644796683029199e+01) (3, 3.26149612314774230981e+01) (4, -3.06016084771119523111e-01) (0, 4.77450587870508258437e-01) (1, -4.52016979560240228508e-01) (2, 3.24659403621925548578e+01) (3, 3.25934694356991485620e+01) (4, 3.43995825471311633681e-01) (0, -4.10196645459758729713e-02) (1, -9.54553128674611506277e-01) (2, 3.26138753689600662256e+01) (3, 3.24322663046194747949e+01) (4, 1.60518573322666231740e-02) (0, 2.08530290090324865737e-01) (1, -4.45530600950106103753e-01) (2, 3.24488106913639740014e+01) (3, 3.25524773396326736474e+01) (4, 3.02148645781757874129e-01) (0, 4.42822420122057025527e-01) (1, -4.39972281560286115898e-01) (2, 3.24833368159605697656e+01) (3, 3.24776682652308181787e+01) (4, 3.55725483121305530165e-01) (0, -2.80078811845409191006e-02) (1, -9.53439699009046015554e-01) (2, 3.25692544676138595605e+01) (3, 3.26233370549751953149e+01) (4, 4.22125221887004742349e-02) (0, -4.58019165596591920631e-02) (1, -9.31062770530566630178e-01) (2, 3.25038241319133476281e+01) (3, 3.24824840895606712365e+01) (4, 2.49942258981590689423e-03) (0, 4.10889075794589886392e-02) (1, -9.37189211592063364797e-01) (2, 3.25533450491501525903e+01) (3, 3.25594507999493316674e+01) (4, -2.51188067993747508877e-02) (0, 1.42527280906714237663e-01) (1, -8.47588462278232146474e-01) (2, 3.24911907113863662744e+01) (3, 3.26088241733385757470e+01) (4, -1.63711358826123726251e-01) (0, 8.35332559147251435538e-02) (1, -9.72273965820655172720e-01) (2, 3.24606108240558342004e+01) (3, 3.25847654588295654321e+01) (4, 9.88043533363712617179e-02) (0, 1.15441320995367815994e-01) (1, -8.69536010071620513173e-01) (2, 3.24616946786417202020e+01) (3, 3.24511996678783134485e+01) (4, 1.26733227232970036003e-01) (0, 2.86215385460140747664e-01) (1, -4.74827781423910633141e-01) (2, 3.24441561795546249414e+01) (3, 3.24842825591339305902e+01) (4, 4.89171223868123006273e-01) (0, 6.26593889394176511987e-02) (1, -9.27538958832606730276e-01) (2, 3.25389100856854156518e+01) (3, 3.26189050473047927881e+01) (4, 7.35461102524174042960e-02) (0, 1.17700188020743182205e-01) (1, -9.06025645777568278127e-01) (2, 3.26072195417954162622e+01) (3, 3.25234667680932716394e+01) (4, -2.79738841852771556729e-02) (0, 1.82000247799637304702e-01) (1, -4.32025514647348951591e-01) (2, 3.25953003115727142358e+01) (3, 3.25020036645008758569e+01) (4, 2.51008419358017487166e-01) (0, 2.98478623890163941024e-01) (1, -5.12482650682314466728e-01) (2, 3.25259882755352691674e+01) (3, 3.25879021532608703637e+01) (4, 6.12944768894902014544e-01) (0, 2.24692137949945913711e-01) (1, -3.94676089391096662773e-01) (2, 3.25242103956414894128e+01) (3, 3.25151995144559577966e+01) (4, 5.97185524333706641009e-01) (0, 2.72343070903194491017e-02) (1, -9.88213521882876699820e-01) (2, 3.24351593427135185266e+01) (3, 3.25238120130969718957e+01) (4, 1.46700055995357594302e-02) (0, 2.34169064127686010757e-01) (1, -5.11548161610945295585e-01) (2, 3.25579937048031524682e+01) (3, 3.26018918402268127466e+01) (4, 1.81566653811218725600e-01) (0, 2.31439320408585058608e-01) (1, -3.78427505597456526054e-01) (2, 3.25227948300315574670e+01) (3, 3.24674715570880607629e+01) (4, 2.19249011986734854140e-01) (0, 2.94720469080688995955e-01) (1, -4.72156580641850009972e-01) (2, 3.25664772785975173974e+01) (3, 3.25188334606363014245e+01) (4, 5.70509033430805945208e-01) (0, 1.93776389621975408950e-01) (1, -5.04316292807444166435e-01) (2, 3.25708279855324462915e+01) (3, 3.25485773630215362573e+01) (4, 3.57795601748707337020e-01) (0, 6.05504482052711012763e-01) (1, -3.48358884558065962089e-01) (2, 3.25423733018113807702e+01) (3, 3.24466343320681289697e+01) (4, 3.48545850338369433974e-01) (0, 2.57884995737445790742e-02) (1, -8.92150965973720122548e-01) (2, 3.25000906906797126794e+01) (3, 3.25133693612887100244e+01) (4, -4.97379763326274842994e-02) (0, 9.10513834753406831046e-02) (1, -8.42089993402347136708e-01) (2, 3.24415764830781654382e+01) (3, 3.25014666117502883935e+01) (4, -1.88587357323133003595e-01) (0, 1.99433824085476385513e-01) (1, -3.88722464546545576347e-01) (2, 3.25028379134608940149e+01) (3, 3.25510413445307449365e+01) (4, 3.52958863639118713973e-01) (0, 2.98377623819592041610e-01) (1, -4.75866582348927036339e-01) (2, 3.24600560612751678491e+01) (3, 3.24936675973011688257e+01) (4, 5.83628835309735083392e-01) (0, 4.47899052025705401991e-01) (1, -4.34184402331694196953e-01) (2, 3.25921141303850845361e+01) (3, 3.25400442652179435754e+01) (4, 2.96098181130319659804e-01) (0, 4.33695891024499957656e-01) (1, -4.87972889199837223106e-01) (2, 3.26194976217819885278e+01) (3, 3.24973864279462532068e+01) (4, 3.40366662563711230849e-01) (0, 2.36838696562530981460e-01) (1, -3.74844625696524214042e-01) (2, 3.25879740662647918725e+01) (3, 3.25657420851065353418e+01) (4, 4.79186682183733725360e-01) (0, 1.14526777128256609939e-01) (1, -9.09226124629363474661e-01) (2, 3.26178983099533752466e+01) (3, 3.26085247792078689599e+01) (4, 1.10841451744116595290e-01) (0, 7.25918249884022065421e-02) (1, -9.81669818505629843131e-01) (2, 3.25249816126896575952e+01) (3, 3.24278512619210914636e+01) (4, 8.79724906483066865226e-02) (0, 3.06223245063197979654e-02) (1, -8.63399547979220916005e-01) (2, 3.26149685330464080835e+01) (3, 3.25430999122335151696e+01) (4, -3.18121162276231217447e-01) (0, 3.08435862921955628035e-01) (1, -4.38124887749537061943e-01) (2, 3.25175472222043708825e+01) (3, 3.25293626807405189538e+01) (4, 4.42581320334664185534e-01) (0, 5.88318096199405629609e-02) (1, -9.34065309807643351370e-01) (2, 3.24674100264682010675e+01) (3, 3.25307509474231437707e+01) (4, 8.19220827618015595695e-02) (0, 5.29630841412914166177e-02) (1, -8.22038782283649016591e-01) (2, 3.25099400676562027002e+01) (3, 3.24933586813284591699e+01) (4, -2.04685908775292885187e-01) (0, 2.98965251111271423934e-01) (1, -4.90134105190619007164e-01) (2, 3.24239407874418930078e+01) (3, 3.25456762633992866540e+01) (4, 4.59052631784668763171e-01) (0, 1.11072926382101824783e-01) (1, -9.47751515999421534353e-01) (2, 3.24581844381763175988e+01) (3, 3.24884760625435546899e+01) (4, -1.29928200455779589186e-03) (0, 4.53551926733881061171e-01) (1, -3.78921181067808698906e-01) (2, 3.26061638094259933496e+01) (3, 3.25898376799895004297e+01) (4, 3.45883951606184070204e-01) (0, 1.31323515037573612663e-01) (1, -8.91354886338100005361e-01) (2, 3.25795173890663818383e+01) (3, 3.25012922607137397790e+01) (4, -4.33912365040409059302e-02) (0, 6.43830440006640913886e-01) (1, -3.37895497784002851738e-01) (2, 3.24934061042739585901e+01) (3, 3.24281599320246414209e+01) (4, 3.74560670079618518447e-01) (0, 1.75227714740517126479e-01) (1, -4.16896544501169752373e-01) (2, 3.24922802395893768335e+01) (3, 3.25139804802610115075e+01) (4, 3.50671893023731751082e-01) (0, 4.61979487063318317031e-01) (1, -5.08682660862787794365e-01) (2, 3.24397915772868827844e+01) (3, 3.26072374976946548486e+01) (4, 1.45098786403564328218e-01) (0, -1.49261145195590909374e-02) (1, -8.47709161683902312490e-01) (2, 3.26107056684567169214e+01) (3, 3.24956798575593666101e+01) (4, -3.07622310738526749674e-01) (0, 2.09305899255754934707e-01) (1, -4.79892082616671100670e-01) (2, 3.25833093024565414453e+01) (3, 3.24442824072910980249e+01) (4, 1.84155358039619909682e-01) (0, 1.97988485955479132095e-01) (1, -5.22413648769243788017e-01) (2, 3.25400542936994270349e+01) (3, 3.26063185728861526513e+01) (4, 2.53088375591518921492e-01) (0, 6.08455813489345076484e-01) (1, -3.83372604951246809257e-01) (2, 3.24944466672612861657e+01) (3, 3.26187813825680450464e+01) (4, 4.26492550494104449843e-01) (0, 6.49695790372279646796e-01) (1, -3.27619299396856855644e-01) (2, 3.24813543244971469903e+01) (3, 3.24588954917861656213e+01) (4, 3.68066401304632251357e-01) (0, 2.08316905462028967300e-01) (1, -5.08248880609854292167e-01) (2, 3.25311420582009986902e+01) (3, 3.24769211880637840295e+01) (4, 1.73198385202171789565e-01) (0, 2.18636116050961004653e-01) (1, -4.36024487122877668632e-01) (2, 3.25727430380655960107e+01) (3, 3.24581544868423179651e+01) (4, 3.33865126632931275008e-01) (0, 1.08401595214880755447e-01) (1, -9.22168043896541056448e-01) (2, 3.24332268260194496179e+01) (3, 3.25441324285937980676e+01) (4, 4.07153354683292278970e-02) (0, 1.93672871255161749282e-01) (1, -3.79507482156141828789e-01) (2, 3.25211643002702430749e+01) (3, 3.25625398553682998681e+01) (4, 3.01020851396801514266e-01) (0, 4.58038830282121722792e-01) (1, -4.62525956436975971275e-01) (2, 3.24969020209981636071e+01) (3, 3.24738027214779094720e+01) (4, 3.37960635395675723647e-01) (0, 1.92189781033279882827e-01) (1, -5.10023117169722151054e-01) (2, 3.24820996582283214593e+01) (3, 3.25023567996694282556e+01) (4, 2.23082134538176046767e-01) (0, 4.26456743003755633925e-01) (1, -4.10954676672800611748e-01) (2, 3.24940870426370338464e+01) (3, 3.24789160474909976983e+01) (4, 4.47671734811693255995e-01) (0, 2.43576122485878482360e-01) (1, -4.24076229438170027031e-01) (2, 3.24834055699183181787e+01) (3, 3.24451318554355339074e+01) (4, 5.74740218151798987201e-01) (0, -3.00474478206264293545e-02) (1, -8.12486154481753874990e-01) (2, 3.24333737961723045373e+01) (3, 3.24556009046508506799e+01) (4, -2.16742922584973823907e-01) (0, 2.73988639973881287215e-01) (1, -4.72354609623535648399e-01) (2, 3.24736023790909484887e+01) (3, 3.24239656351281837487e+01) (4, 6.30847202767124803913e-01) (0, 1.27305089096106327506e-01) (1, -8.15119428083285857412e-01) (2, 3.24811228386832908654e+01) (3, 3.24766286298407749200e+01) (4, -2.27157412371265209072e-02) (0, 6.42698766389263459464e-02) (1, -9.20810011669978556448e-01) (2, 3.24701237551643089319e+01) (3, 3.25987910575939849878e+01) (4, 1.00147767523802597167e-01) (5, 2.46897608358897596714e-01) (6, 2.87546452870482971420e-01) (7, 4.90534765512982695590e-01) (8, 3.33377730836982300033e-01) (9, 3.42753198733443786850e-01) (10, 4.59523735435048652498e-01) (11, 4.63264195115605903474e-01) (12, 5.02906380088368853976e-01) (13, 5.19219992549458941866e-01) (14, 4.84686737747231921603e-01) (15, 4.40007103474179817049e-01) (16, 2.84096431722755005111e-01) (17, 4.66932402790824485628e-01) (18, 4.49671579391995979158e-01) (19, 2.99885623474158702351e-01) (20, 3.12103536715621521225e-01) (21, 2.94975262870902588119e-01) (22, 4.27862828464547706453e-01) (23, 3.45894210357703624226e-01) (24, 2.95231592645759155502e-01) (25, 3.63572892537231018295e-01) (26, 3.25620822925605235554e-01) (27, 2.74843980362529327621e-01) (28, 4.78484066070357871858e-01) (29, 1.78540140707530409214e-01) (30, 3.04549750676269104233e-01) (31, 3.37677818527335693588e-01) (32, 2.68564333012218048324e-01) (33, 3.50964200487250854721e-01) (34, 3.12759560337180664291e-01) (35, 4.78631263465920997469e-01) (36, 5.06771115453282794405e-01) (37, 2.19512895066775709507e-01) (38, 2.89480005195254852524e-01) (39, 4.75458120794335914461e-01) (40, 1.97575353403129011509e-01) (41, 3.26815363755340149154e-01) (42, 5.16533939034978351046e-01) (43, 2.94395756712073852768e-01) (44, 4.81344623358289314119e-01) (45, 3.21534660449142029037e-01) (46, 3.12214475860709717026e-01) (47, 6.16852710309144680600e-01) (48, 1.50176279563941389439e-01) (49, 3.23595293183364329792e-01) (50, 2.78447576184310374714e-01) (51, 3.13691478958243896713e-01) (52, 2.69982215752715637436e-01) (53, 2.84122012872733531452e-01) (54, 3.10997349014396240463e-01) (55, 4.58020729811231208650e-01) (56, 2.99106580009574463119e-01) (57, 2.88029824187869598617e-01) (58, 2.94573925752677379108e-01) (59, 3.55402258029098083725e-01) (60, 3.17981627574080993881e-01) (61, 2.34432958383597761509e-01) (62, 3.28389328708762695541e-01) (63, 2.05752834994830519078e-01) (64, 4.94306458027402417787e-01) (65, -6.50247121042888259757e-02) 
